<?xml version="1.0"?>
<opencv_storage>
<biensoxemay2 type_id="opencv-haar-classifier">
  <size>
    24 24</size>
  <stages>
    <_>
      <trees>
        <_>
          <_>
            <feature>
              <rects>
                <_>
                  0 2 6 9 -1.</_>
                <_>
                  2 2 2 9 3.</_></rects>
              <tilted>0</tilted></feature>
            <threshold>0.0481480211019516</threshold>
            <left_val>-0.8177068233489990</left_val>
            <right_val>0.9221497774124146</right_val></_></_>
        <_>
          <_>
            <feature>
              <rects>
                <_>
                  6 0 12 21 -1.</_>
                <_>
                  10 7 4 7 9.</_></rects>
              <tilted>0</tilted></feature>
            <threshold>0.2487612068653107</threshold>
            <left_val>-0.5451757907867432</left_val>
            <right_val>0.8211485147476196</right_val></_></_>
        <_>
          <_>
            <feature>
              <rects>
                <_>
                  3 5 9 8 -1.</_>
                <_>
                  3 7 9 4 2.</_></rects>
              <tilted>0</tilted></feature>
            <threshold>-1.0321820154786110e-003</threshold>
            <left_val>0.4856786131858826</left_val>
            <right_val>-0.8176133036613464</right_val></_></_>
        <_>
          <_>
            <feature>
              <rects>
                <_>
                  20 7 4 1 -1.</_>
                <_>
                  20 7 2 1 2.</_></rects>
              <tilted>0</tilted></feature>
            <threshold>1.0377239668741822e-003</threshold>
            <left_val>-0.4783172905445099</left_val>
            <right_val>0.5365970730781555</right_val></_></_>
        <_>
          <_>
            <feature>
              <rects>
                <_>
                  0 0 2 9 -1.</_>
                <_>
                  1 0 1 9 2.</_></rects>
              <tilted>0</tilted></feature>
            <threshold>1.7148850020021200e-005</threshold>
            <left_val>-0.9563524723052979</left_val>
            <right_val>0.3879688084125519</right_val></_></_></trees>
      <stage_threshold>-0.9675524234771729</stage_threshold>
      <parent>-1</parent>
      <next>-1</next></_>
    <_>
      <trees>
        <_>
          <_>
            <feature>
              <rects>
                <_>
                  11 0 5 3 -1.</_>
                <_>
                  10 1 5 1 3.</_></rects>
              <tilted>1</tilted></feature>
            <threshold>9.8345819860696793e-003</threshold>
            <left_val>-0.7064759135246277</left_val>
            <right_val>0.8398414254188538</right_val></_></_>
        <_>
          <_>
            <feature>
              <rects>
                <_>
                  15 8 2 4 -1.</_>
                <_>
                  15 8 1 4 2.</_></rects>
              <tilted>0</tilted></feature>
            <threshold>-7.8789418330416083e-004</threshold>
            <left_val>0.4592407047748566</left_val>
            <right_val>-0.3136183917522430</right_val></_></_>
        <_>
          <_>
            <feature>
              <rects>
                <_>
                  10 11 4 4 -1.</_>
                <_>
                  10 13 4 2 2.</_></rects>
              <tilted>0</tilted></feature>
            <threshold>-6.3794190064072609e-003</threshold>
            <left_val>0.8126872777938843</left_val>
            <right_val>-0.6028934717178345</right_val></_></_>
        <_>
          <_>
            <feature>
              <rects>
                <_>
                  13 10 2 12 -1.</_>
                <_>
                  14 10 1 6 2.</_>
                <_>
                  13 16 1 6 2.</_></rects>
              <tilted>0</tilted></feature>
            <threshold>-3.5579320974647999e-003</threshold>
            <left_val>0.4958756864070892</left_val>
            <right_val>-0.1208695992827416</right_val></_></_>
        <_>
          <_>
            <feature>
              <rects>
                <_>
                  9 10 2 12 -1.</_>
                <_>
                  9 10 1 6 2.</_>
                <_>
                  10 16 1 6 2.</_></rects>
              <tilted>0</tilted></feature>
            <threshold>-1.8237290205433965e-003</threshold>
            <left_val>0.7034249901771545</left_val>
            <right_val>-0.5221973061561585</right_val></_></_>
        <_>
          <_>
            <feature>
              <rects>
                <_>
                  12 21 12 2 -1.</_>
                <_>
                  12 21 6 2 2.</_></rects>
              <tilted>0</tilted></feature>
            <threshold>-1.9113150192424655e-003</threshold>
            <left_val>-0.5430151224136353</left_val>
            <right_val>0.2847596108913422</right_val></_></_></trees>
      <stage_threshold>-1.5834469795227051</stage_threshold>
      <parent>0</parent>
      <next>-1</next></_>
    <_>
      <trees>
        <_>
          <_>
            <feature>
              <rects>
                <_>
                  0 0 6 12 -1.</_>
                <_>
                  2 0 2 12 3.</_></rects>
              <tilted>0</tilted></feature>
            <threshold>0.0546820908784866</threshold>
            <left_val>-0.8212422132492065</left_val>
            <right_val>0.7852978706359863</right_val></_></_>
        <_>
          <_>
            <feature>
              <rects>
                <_>
                  0 0 24 24 -1.</_>
                <_>
                  0 8 24 8 3.</_></rects>
              <tilted>0</tilted></feature>
            <threshold>0.1278764009475708</threshold>
            <left_val>-0.7135062813758850</left_val>
            <right_val>0.7796099781990051</right_val></_></_>
        <_>
          <_>
            <feature>
              <rects>
                <_>
                  6 7 4 6 -1.</_>
                <_>
                  6 10 4 3 2.</_></rects>
              <tilted>0</tilted></feature>
            <threshold>1.1770540149882436e-003</threshold>
            <left_val>-0.7946019172668457</left_val>
            <right_val>0.5432838201522827</right_val></_></_>
        <_>
          <_>
            <feature>
              <rects>
                <_>
                  8 20 16 4 -1.</_>
                <_>
                  12 20 8 4 2.</_></rects>
              <tilted>0</tilted></feature>
            <threshold>2.7031879872083664e-003</threshold>
            <left_val>-0.4947690069675446</left_val>
            <right_val>0.2405761033296585</right_val></_></_>
        <_>
          <_>
            <feature>
              <rects>
                <_>
                  0 20 16 4 -1.</_>
                <_>
                  4 20 8 4 2.</_></rects>
              <tilted>0</tilted></feature>
            <threshold>1.0174890048801899e-003</threshold>
            <left_val>-0.6877757906913757</left_val>
            <right_val>0.6467946171760559</right_val></_></_></trees>
      <stage_threshold>-0.8394392728805542</stage_threshold>
      <parent>1</parent>
      <next>-1</next></_>
    <_>
      <trees>
        <_>
          <_>
            <feature>
              <rects>
                <_>
                  12 1 4 3 -1.</_>
                <_>
                  11 2 4 1 3.</_></rects>
              <tilted>1</tilted></feature>
            <threshold>7.9059461131691933e-003</threshold>
            <left_val>-0.7488790154457092</left_val>
            <right_val>0.8930485248565674</right_val></_></_>
        <_>
          <_>
            <feature>
              <rects>
                <_>
                  12 9 4 2 -1.</_>
                <_>
                  12 9 2 2 2.</_></rects>
              <tilted>0</tilted></feature>
            <threshold>4.4302470050752163e-003</threshold>
            <left_val>-0.4291402101516724</left_val>
            <right_val>0.7116296887397766</right_val></_></_>
        <_>
          <_>
            <feature>
              <rects>
                <_>
                  8 7 3 6 -1.</_>
                <_>
                  9 7 1 6 3.</_></rects>
              <tilted>0</tilted></feature>
            <threshold>-2.3944010026752949e-003</threshold>
            <left_val>0.7414078712463379</left_val>
            <right_val>-0.6453394293785095</right_val></_></_>
        <_>
          <_>
            <feature>
              <rects>
                <_>
                  13 2 1 12 -1.</_>
                <_>
                  13 5 1 6 2.</_></rects>
              <tilted>0</tilted></feature>
            <threshold>9.9671643693000078e-004</threshold>
            <left_val>-0.1670626997947693</left_val>
            <right_val>0.3127236068248749</right_val></_></_>
        <_>
          <_>
            <feature>
              <rects>
                <_>
                  10 2 1 12 -1.</_>
                <_>
                  10 5 1 6 2.</_></rects>
              <tilted>0</tilted></feature>
            <threshold>1.6029409598559141e-003</threshold>
            <left_val>-0.5265256166458130</left_val>
            <right_val>0.7548140287399292</right_val></_></_></trees>
      <stage_threshold>-1.1302000284194946</stage_threshold>
      <parent>2</parent>
      <next>-1</next></_>
    <_>
      <trees>
        <_>
          <_>
            <feature>
              <rects>
                <_>
                  2 22 20 2 -1.</_>
                <_>
                  2 23 20 1 2.</_></rects>
              <tilted>0</tilted></feature>
            <threshold>-0.0231057405471802</threshold>
            <left_val>0.9134309887886047</left_val>
            <right_val>-0.6830031871795654</right_val></_></_>
        <_>
          <_>
            <feature>
              <rects>
                <_>
                  8 3 8 9 -1.</_>
                <_>
                  10 3 4 9 2.</_></rects>
              <tilted>0</tilted></feature>
            <threshold>0.0429094284772873</threshold>
            <left_val>-0.6077632904052734</left_val>
            <right_val>0.7828006148338318</right_val></_></_>
        <_>
          <_>
            <feature>
              <rects>
                <_>
                  2 9 6 4 -1.</_>
                <_>
                  4 9 2 4 3.</_></rects>
              <tilted>0</tilted></feature>
            <threshold>-2.3181389551609755e-003</threshold>
            <left_val>0.5790159106254578</left_val>
            <right_val>-0.6535729169845581</right_val></_></_>
        <_>
          <_>
            <feature>
              <rects>
                <_>
                  20 1 3 8 -1.</_>
                <_>
                  21 1 1 8 3.</_></rects>
              <tilted>0</tilted></feature>
            <threshold>-1.9001440377905965e-003</threshold>
            <left_val>-0.8275179266929627</left_val>
            <right_val>0.2187768965959549</right_val></_></_>
        <_>
          <_>
            <feature>
              <rects>
                <_>
                  12 6 3 6 -1.</_>
                <_>
                  10 8 3 2 3.</_></rects>
              <tilted>1</tilted></feature>
            <threshold>-5.2577308379113674e-003</threshold>
            <left_val>0.4579828083515167</left_val>
            <right_val>-0.7493556737899780</right_val></_></_>
        <_>
          <_>
            <feature>
              <rects>
                <_>
                  20 8 2 3 -1.</_>
                <_>
                  20 9 2 1 3.</_></rects>
              <tilted>0</tilted></feature>
            <threshold>-2.3755080474074930e-004</threshold>
            <left_val>-0.4871473014354706</left_val>
            <right_val>0.0907494425773621</right_val></_></_></trees>
      <stage_threshold>-1.1768300533294678</stage_threshold>
      <parent>3</parent>
      <next>-1</next></_>
    <_>
      <trees>
        <_>
          <_>
            <feature>
              <rects>
                <_>
                  5 11 11 6 -1.</_>
                <_>
                  5 14 11 3 2.</_></rects>
              <tilted>0</tilted></feature>
            <threshold>-8.0371480435132980e-003</threshold>
            <left_val>0.8786540031433106</left_val>
            <right_val>-0.9097613096237183</right_val></_></_>
        <_>
          <_>
            <feature>
              <rects>
                <_>
                  4 7 17 6 -1.</_>
                <_>
                  4 9 17 2 3.</_></rects>
              <tilted>0</tilted></feature>
            <threshold>-5.7028760202229023e-003</threshold>
            <left_val>0.8895956277847290</left_val>
            <right_val>-0.7199097275733948</right_val></_></_>
        <_>
          <_>
            <feature>
              <rects>
                <_>
                  0 9 2 4 -1.</_>
                <_>
                  1 9 1 4 2.</_></rects>
              <tilted>0</tilted></feature>
            <threshold>6.0229399241507053e-004</threshold>
            <left_val>-0.7734091281890869</left_val>
            <right_val>0.8276138901710510</right_val></_></_>
        <_>
          <_>
            <feature>
              <rects>
                <_>
                  18 6 3 4 -1.</_>
                <_>
                  18 7 3 2 2.</_></rects>
              <tilted>0</tilted></feature>
            <threshold>-2.0009449144708924e-005</threshold>
            <left_val>0.4970022141933441</left_val>
            <right_val>-0.5782486200332642</right_val></_></_>
        <_>
          <_>
            <feature>
              <rects>
                <_>
                  3 6 3 4 -1.</_>
                <_>
                  3 7 3 2 2.</_></rects>
              <tilted>0</tilted></feature>
            <threshold>1.5914520190563053e-005</threshold>
            <left_val>-0.8197919726371765</left_val>
            <right_val>0.8575075864791870</right_val></_></_>
        <_>
          <_>
            <feature>
              <rects>
                <_>
                  13 6 2 18 -1.</_>
                <_>
                  14 6 1 9 2.</_>
                <_>
                  13 15 1 9 2.</_></rects>
              <tilted>0</tilted></feature>
            <threshold>-3.1193359754979610e-003</threshold>
            <left_val>0.4893372058868408</left_val>
            <right_val>-0.8573352098464966</right_val></_></_>
        <_>
          <_>
            <feature>
              <rects>
                <_>
                  2 1 2 6 -1.</_>
                <_>
                  2 4 2 3 2.</_></rects>
              <tilted>0</tilted></feature>
            <threshold>8.1181053246837109e-005</threshold>
            <left_val>-0.9564157724380493</left_val>
            <right_val>0.7790148258209229</right_val></_></_>
        <_>
          <_>
            <feature>
              <rects>
                <_>
                  0 12 24 1 -1.</_>
                <_>
                  6 12 12 1 2.</_></rects>
              <tilted>0</tilted></feature>
            <threshold>5.3222188726067543e-003</threshold>
            <left_val>-0.9806656241416931</left_val>
            <right_val>0.6732649803161621</right_val></_></_>
        <_>
          <_>
            <feature>
              <rects>
                <_>
                  7 13 2 7 -1.</_>
                <_>
                  8 13 1 7 2.</_></rects>
              <tilted>0</tilted></feature>
            <threshold>1.4186279440764338e-004</threshold>
            <left_val>-1.</left_val>
            <right_val>0.8934326767921448</right_val></_></_>
        <_>
          <_>
            <feature>
              <rects>
                <_>
                  22 0 2 1 -1.</_>
                <_>
                  22 0 1 1 2.</_></rects>
              <tilted>0</tilted></feature>
            <threshold>-1.7148850020021200e-005</threshold>
            <left_val>1.</left_val>
            <right_val>-0.9999998807907105</right_val></_></_>
        <_>
          <_>
            <feature>
              <rects>
                <_>
                  9 9 5 8 -1.</_>
                <_>
                  9 13 5 4 2.</_></rects>
              <tilted>0</tilted></feature>
            <threshold>-2.1025219466537237e-003</threshold>
            <left_val>1.</left_val>
            <right_val>-0.9951121211051941</right_val></_></_></trees>
      <stage_threshold>0.2928937077522278</stage_threshold>
      <parent>4</parent>
      <next>-1</next></_>
    <_>
      <trees>
        <_>
          <_>
            <feature>
              <rects>
                <_>
                  0 3 6 7 -1.</_>
                <_>
                  2 3 2 7 3.</_></rects>
              <tilted>0</tilted></feature>
            <threshold>0.0416609011590481</threshold>
            <left_val>-0.7990400195121765</left_val>
            <right_val>0.9454134106636047</right_val></_></_>
        <_>
          <_>
            <feature>
              <rects>
                <_>
                  2 22 21 2 -1.</_>
                <_>
                  2 23 21 1 2.</_></rects>
              <tilted>0</tilted></feature>
            <threshold>-0.0188235808163881</threshold>
            <left_val>0.9493402838706970</left_val>
            <right_val>-0.5554190874099731</right_val></_></_>
        <_>
          <_>
            <feature>
              <rects>
                <_>
                  8 3 6 10 -1.</_>
                <_>
                  10 3 2 10 3.</_></rects>
              <tilted>0</tilted></feature>
            <threshold>0.0108437296003103</threshold>
            <left_val>-0.9398198723793030</left_val>
            <right_val>0.6610476970672607</right_val></_></_></trees>
      <stage_threshold>-0.6934114098548889</stage_threshold>
      <parent>5</parent>
      <next>-1</next></_>
    <_>
      <trees>
        <_>
          <_>
            <feature>
              <rects>
                <_>
                  0 0 2 21 -1.</_>
                <_>
                  1 0 1 21 2.</_></rects>
              <tilted>0</tilted></feature>
            <threshold>0.0327546410262585</threshold>
            <left_val>-0.6769117116928101</left_val>
            <right_val>0.8327283263206482</right_val></_></_>
        <_>
          <_>
            <feature>
              <rects>
                <_>
                  6 22 13 2 -1.</_>
                <_>
                  6 23 13 1 2.</_></rects>
              <tilted>0</tilted></feature>
            <threshold>-0.0195721499621868</threshold>
            <left_val>0.8766437172889710</left_val>
            <right_val>-0.4618211090564728</right_val></_></_>
        <_>
          <_>
            <feature>
              <rects>
                <_>
                  5 3 8 2 -1.</_>
                <_>
                  7 5 4 2 2.</_></rects>
              <tilted>1</tilted></feature>
            <threshold>-3.0503799207508564e-003</threshold>
            <left_val>0.4815294146537781</left_val>
            <right_val>-0.9212859272956848</right_val></_></_>
        <_>
          <_>
            <feature>
              <rects>
                <_>
                  20 7 3 3 -1.</_>
                <_>
                  20 8 3 1 3.</_></rects>
              <tilted>0</tilted></feature>
            <threshold>1.6421859618276358e-003</threshold>
            <left_val>0.1625456959009171</left_val>
            <right_val>-0.8643851876258850</right_val></_></_></trees>
      <stage_threshold>-0.5590081214904785</stage_threshold>
      <parent>6</parent>
      <next>-1</next></_>
    <_>
      <trees>
        <_>
          <_>
            <feature>
              <rects>
                <_>
                  0 22 23 2 -1.</_>
                <_>
                  0 23 23 1 2.</_></rects>
              <tilted>0</tilted></feature>
            <threshold>-0.0278690904378891</threshold>
            <left_val>0.8858280181884766</left_val>
            <right_val>-0.6902006864547730</right_val></_></_>
        <_>
          <_>
            <feature>
              <rects>
                <_>
                  14 2 6 10 -1.</_>
                <_>
                  16 2 2 10 3.</_></rects>
              <tilted>0</tilted></feature>
            <threshold>0.0136366402730346</threshold>
            <left_val>-0.4737874865531921</left_val>
            <right_val>0.6109808087348938</right_val></_></_>
        <_>
          <_>
            <feature>
              <rects>
                <_>
                  6 4 6 2 -1.</_>
                <_>
                  8 6 2 2 3.</_></rects>
              <tilted>1</tilted></feature>
            <threshold>-0.0100447200238705</threshold>
            <left_val>-0.8165122866630554</left_val>
            <right_val>0.5731493234634399</right_val></_></_>
        <_>
          <_>
            <feature>
              <rects>
                <_>
                  17 4 2 6 -1.</_>
                <_>
                  18 4 1 3 2.</_>
                <_>
                  17 7 1 3 2.</_></rects>
              <tilted>0</tilted></feature>
            <threshold>-4.8916530795395374e-003</threshold>
            <left_val>0.7357754707336426</left_val>
            <right_val>-0.1676532030105591</right_val></_></_></trees>
      <stage_threshold>-0.7584921121597290</stage_threshold>
      <parent>7</parent>
      <next>-1</next></_>
    <_>
      <trees>
        <_>
          <_>
            <feature>
              <rects>
                <_>
                  12 1 4 3 -1.</_>
                <_>
                  11 2 4 1 3.</_></rects>
              <tilted>1</tilted></feature>
            <threshold>0.0108893299475312</threshold>
            <left_val>-0.7006800770759583</left_val>
            <right_val>0.8607226014137268</right_val></_></_>
        <_>
          <_>
            <feature>
              <rects>
                <_>
                  3 6 20 3 -1.</_>
                <_>
                  8 6 10 3 2.</_></rects>
              <tilted>0</tilted></feature>
            <threshold>0.0148479500785470</threshold>
            <left_val>0.4449360072612763</left_val>
            <right_val>-0.6666836142539978</right_val></_></_>
        <_>
          <_>
            <feature>
              <rects>
                <_>
                  5 8 2 4 -1.</_>
                <_>
                  5 8 1 2 2.</_>
                <_>
                  6 10 1 2 2.</_></rects>
              <tilted>0</tilted></feature>
            <threshold>2.2073399741202593e-003</threshold>
            <left_val>-0.5035514235496521</left_val>
            <right_val>0.9149891138076782</right_val></_></_>
        <_>
          <_>
            <feature>
              <rects>
                <_>
                  6 12 16 1 -1.</_>
                <_>
                  10 12 8 1 2.</_></rects>
              <tilted>0</tilted></feature>
            <threshold>8.7154097855091095e-003</threshold>
            <left_val>0.2357210963964462</left_val>
            <right_val>-0.9033581018447876</right_val></_></_>
        <_>
          <_>
            <feature>
              <rects>
                <_>
                  2 5 2 6 -1.</_>
                <_>
                  2 8 2 3 2.</_></rects>
              <tilted>0</tilted></feature>
            <threshold>-1.4330149861052632e-003</threshold>
            <left_val>-0.6675462722778320</left_val>
            <right_val>0.5232083797454834</right_val></_></_>
        <_>
          <_>
            <feature>
              <rects>
                <_>
                  16 4 1 4 -1.</_>
                <_>
                  15 5 1 2 2.</_></rects>
              <tilted>1</tilted></feature>
            <threshold>-7.5804349035024643e-003</threshold>
            <left_val>0.6322606205940247</left_val>
            <right_val>-0.1490035951137543</right_val></_></_>
        <_>
          <_>
            <feature>
              <rects>
                <_>
                  10 11 3 1 -1.</_>
                <_>
                  11 11 1 1 3.</_></rects>
              <tilted>0</tilted></feature>
            <threshold>2.9958019149489701e-004</threshold>
            <left_val>0.4888859987258911</left_val>
            <right_val>-0.7605025768280029</right_val></_></_></trees>
      <stage_threshold>-0.9098721742630005</stage_threshold>
      <parent>8</parent>
      <next>-1</next></_>
    <_>
      <trees>
        <_>
          <_>
            <feature>
              <rects>
                <_>
                  2 7 12 4 -1.</_>
                <_>
                  5 7 6 4 2.</_></rects>
              <tilted>0</tilted></feature>
            <threshold>-0.0288365706801414</threshold>
            <left_val>0.7243108153343201</left_val>
            <right_val>-0.7206975221633911</right_val></_></_>
        <_>
          <_>
            <feature>
              <rects>
                <_>
                  6 12 15 2 -1.</_>
                <_>
                  6 13 15 1 2.</_></rects>
              <tilted>0</tilted></feature>
            <threshold>-9.3280961737036705e-003</threshold>
            <left_val>0.6217479705810547</left_val>
            <right_val>-0.5445423126220703</right_val></_></_>
        <_>
          <_>
            <feature>
              <rects>
                <_>
                  3 0 4 4 -1.</_>
                <_>
                  3 1 4 2 2.</_></rects>
              <tilted>0</tilted></feature>
            <threshold>2.2150939330458641e-003</threshold>
            <left_val>-0.5798755288124085</left_val>
            <right_val>0.7748942971229553</right_val></_></_>
        <_>
          <_>
            <feature>
              <rects>
                <_>
                  10 7 9 10 -1.</_>
                <_>
                  13 7 3 10 3.</_></rects>
              <tilted>0</tilted></feature>
            <threshold>0.0380761288106442</threshold>
            <left_val>0.1922077983617783</left_val>
            <right_val>-0.7280650138854981</right_val></_></_>
        <_>
          <_>
            <feature>
              <rects>
                <_>
                  9 22 4 2 -1.</_>
                <_>
                  9 23 4 1 2.</_></rects>
              <tilted>0</tilted></feature>
            <threshold>-1.2751239410135895e-004</threshold>
            <left_val>0.4589059948921204</left_val>
            <right_val>-0.8297446966171265</right_val></_></_>
        <_>
          <_>
            <feature>
              <rects>
                <_>
                  10 7 9 10 -1.</_>
                <_>
                  13 7 3 10 3.</_></rects>
              <tilted>0</tilted></feature>
            <threshold>0.0447769202291965</threshold>
            <left_val>-0.0610372610390186</left_val>
            <right_val>-0.7247501015663147</right_val></_></_></trees>
      <stage_threshold>-1.2550389766693115</stage_threshold>
      <parent>9</parent>
      <next>-1</next></_>
    <_>
      <trees>
        <_>
          <_>
            <feature>
              <rects>
                <_>
                  2 0 19 2 -1.</_>
                <_>
                  2 1 19 1 2.</_></rects>
              <tilted>0</tilted></feature>
            <threshold>0.0139770796522498</threshold>
            <left_val>-0.5876286029815674</left_val>
            <right_val>0.9047605991363525</right_val></_></_>
        <_>
          <_>
            <feature>
              <rects>
                <_>
                  14 10 6 4 -1.</_>
                <_>
                  14 11 6 2 2.</_></rects>
              <tilted>0</tilted></feature>
            <threshold>0.0115199098363519</threshold>
            <left_val>-0.3100081086158752</left_val>
            <right_val>0.8286920785903931</right_val></_></_>
        <_>
          <_>
            <feature>
              <rects>
                <_>
                  4 6 4 1 -1.</_>
                <_>
                  4 6 2 1 2.</_></rects>
              <tilted>1</tilted></feature>
            <threshold>2.9086179565638304e-003</threshold>
            <left_val>-0.6689180135726929</left_val>
            <right_val>0.6250247955322266</right_val></_></_>
        <_>
          <_>
            <feature>
              <rects>
                <_>
                  12 8 8 4 -1.</_>
                <_>
                  14 10 4 4 2.</_></rects>
              <tilted>1</tilted></feature>
            <threshold>0.0122913504019380</threshold>
            <left_val>0.1437947005033493</left_val>
            <right_val>-0.5192704200744629</right_val></_></_>
        <_>
          <_>
            <feature>
              <rects>
                <_>
                  12 8 4 8 -1.</_>
                <_>
                  10 10 4 4 2.</_></rects>
              <tilted>1</tilted></feature>
            <threshold>5.8404630981385708e-003</threshold>
            <left_val>0.3768632113933563</left_val>
            <right_val>-0.9228258132934570</right_val></_></_>
        <_>
          <_>
            <feature>
              <rects>
                <_>
                  16 6 3 11 -1.</_>
                <_>
                  17 6 1 11 3.</_></rects>
              <tilted>0</tilted></feature>
            <threshold>4.7874818556010723e-003</threshold>
            <left_val>-0.3283109962940216</left_val>
            <right_val>0.1726143062114716</right_val></_></_>
        <_>
          <_>
            <feature>
              <rects>
                <_>
                  5 4 16 1 -1.</_>
                <_>
                  9 8 8 1 2.</_></rects>
              <tilted>1</tilted></feature>
            <threshold>5.0843050703406334e-003</threshold>
            <left_val>-0.7529588937759399</left_val>
            <right_val>0.6195499897003174</right_val></_></_></trees>
      <stage_threshold>-0.9167978167533875</stage_threshold>
      <parent>10</parent>
      <next>-1</next></_>
    <_>
      <trees>
        <_>
          <_>
            <feature>
              <rects>
                <_>
                  7 10 4 1 -1.</_>
                <_>
                  8 10 2 1 2.</_></rects>
              <tilted>0</tilted></feature>
            <threshold>-3.6411141045391560e-003</threshold>
            <left_val>0.8265895843505859</left_val>
            <right_val>-0.6299554109573364</right_val></_></_>
        <_>
          <_>
            <feature>
              <rects>
                <_>
                  15 3 8 9 -1.</_>
                <_>
                  15 3 4 9 2.</_></rects>
              <tilted>0</tilted></feature>
            <threshold>-5.2133100107312202e-003</threshold>
            <left_val>0.2943505942821503</left_val>
            <right_val>-0.4432868957519531</right_val></_></_>
        <_>
          <_>
            <feature>
              <rects>
                <_>
                  11 0 2 8 -1.</_>
                <_>
                  11 2 2 4 2.</_></rects>
              <tilted>0</tilted></feature>
            <threshold>6.7548570223152637e-003</threshold>
            <left_val>-0.5022963285446167</left_val>
            <right_val>0.7107707262039185</right_val></_></_>
        <_>
          <_>
            <feature>
              <rects>
                <_>
                  12 15 8 6 -1.</_>
                <_>
                  12 17 8 2 3.</_></rects>
              <tilted>0</tilted></feature>
            <threshold>-0.0258162599056959</threshold>
            <left_val>-0.8965833783149719</left_val>
            <right_val>0.0948785319924355</right_val></_></_>
        <_>
          <_>
            <feature>
              <rects>
                <_>
                  4 15 8 6 -1.</_>
                <_>
                  4 17 8 2 3.</_></rects>
              <tilted>0</tilted></feature>
            <threshold>9.8346010781824589e-004</threshold>
            <left_val>-0.5854747295379639</left_val>
            <right_val>0.6132342815399170</right_val></_></_>
        <_>
          <_>
            <feature>
              <rects>
                <_>
                  9 3 6 4 -1.</_>
                <_>
                  11 3 2 4 3.</_></rects>
              <tilted>0</tilted></feature>
            <threshold>8.0939354375004768e-003</threshold>
            <left_val>-0.7984272837638855</left_val>
            <right_val>0.3900425136089325</right_val></_></_>
        <_>
          <_>
            <feature>
              <rects>
                <_>
                  0 7 24 12 -1.</_>
                <_>
                  8 11 8 4 9.</_></rects>
              <tilted>0</tilted></feature>
            <threshold>-0.0153164500370622</threshold>
            <left_val>-0.9505230784416199</left_val>
            <right_val>0.3436692059040070</right_val></_></_></trees>
      <stage_threshold>-1.3221839666366577</stage_threshold>
      <parent>11</parent>
      <next>-1</next></_>
    <_>
      <trees>
        <_>
          <_>
            <feature>
              <rects>
                <_>
                  5 9 2 3 -1.</_>
                <_>
                  4 10 2 1 3.</_></rects>
              <tilted>1</tilted></feature>
            <threshold>6.6564981825649738e-003</threshold>
            <left_val>-0.6017314791679382</left_val>
            <right_val>0.8224838972091675</right_val></_></_>
        <_>
          <_>
            <feature>
              <rects>
                <_>
                  21 7 1 3 -1.</_>
                <_>
                  21 8 1 1 3.</_></rects>
              <tilted>0</tilted></feature>
            <threshold>-2.0833530288655311e-004</threshold>
            <left_val>-0.8818380832672119</left_val>
            <right_val>0.4447090029716492</right_val></_></_>
        <_>
          <_>
            <feature>
              <rects>
                <_>
                  11 10 1 2 -1.</_>
                <_>
                  11 11 1 1 2.</_></rects>
              <tilted>0</tilted></feature>
            <threshold>2.3918040096759796e-004</threshold>
            <left_val>0.3894315063953400</left_val>
            <right_val>-0.9190635085105896</right_val></_></_>
        <_>
          <_>
            <feature>
              <rects>
                <_>
                  18 0 6 12 -1.</_>
                <_>
                  20 0 2 12 3.</_></rects>
              <tilted>0</tilted></feature>
            <threshold>0.0406857505440712</threshold>
            <left_val>-0.7055861949920654</left_val>
            <right_val>0.6099929809570313</right_val></_></_>
        <_>
          <_>
            <feature>
              <rects>
                <_>
                  0 2 10 2 -1.</_>
                <_>
                  0 2 5 1 2.</_>
                <_>
                  5 3 5 1 2.</_></rects>
              <tilted>0</tilted></feature>
            <threshold>-3.3633341081440449e-003</threshold>
            <left_val>0.7099915742874146</left_val>
            <right_val>-0.5820575952529907</right_val></_></_></trees>
      <stage_threshold>-1.0897330045700073</stage_threshold>
      <parent>12</parent>
      <next>-1</next></_>
    <_>
      <trees>
        <_>
          <_>
            <feature>
              <rects>
                <_>
                  8 11 8 3 -1.</_>
                <_>
                  8 12 8 1 3.</_></rects>
              <tilted>0</tilted></feature>
            <threshold>9.2204622924327850e-003</threshold>
            <left_val>-0.6627634167671204</left_val>
            <right_val>0.7587119936943054</right_val></_></_>
        <_>
          <_>
            <feature>
              <rects>
                <_>
                  22 0 2 8 -1.</_>
                <_>
                  22 0 1 8 2.</_></rects>
              <tilted>0</tilted></feature>
            <threshold>0.0126850502565503</threshold>
            <left_val>-0.4395377039909363</left_val>
            <right_val>0.8036767244338989</right_val></_></_>
        <_>
          <_>
            <feature>
              <rects>
                <_>
                  2 8 1 3 -1.</_>
                <_>
                  2 9 1 1 3.</_></rects>
              <tilted>0</tilted></feature>
            <threshold>2.7351788594387472e-004</threshold>
            <left_val>0.4749652147293091</left_val>
            <right_val>-0.9869086742401123</right_val></_></_>
        <_>
          <_>
            <feature>
              <rects>
                <_>
                  21 7 1 3 -1.</_>
                <_>
                  21 8 1 1 3.</_></rects>
              <tilted>0</tilted></feature>
            <threshold>-2.7007609605789185e-004</threshold>
            <left_val>-0.9014958739280701</left_val>
            <right_val>0.0384458415210247</right_val></_></_></trees>
      <stage_threshold>-0.5888900756835938</stage_threshold>
      <parent>13</parent>
      <next>-1</next></_></stages></biensoxemay2>
</opencv_storage>
